digraph Tree {
node [shape=box, style="filled, rounded", color="black", fontname="helvetica"] ;
edge [fontname="helvetica"] ;
0 [label="petal width (cm) <= 0.8\ngini = 0.65\nsamples = 88\nvalue = [66, 35, 49]\nclass = setosa", fillcolor="#fbeade"] ;
1 [label="gini = 0.0\nsamples = 35\nvalue = [66, 0, 0]\nclass = setosa", fillcolor="#e58139"] ;
0 -> 1 [labeldistance=2.5, labelangle=45, headlabel="True"] ;
2 [label="petal length (cm) <= 4.85\ngini = 0.49\nsamples = 53\nvalue = [0, 35, 49]\nclass = virginica", fillcolor="#dbc6f8"] ;
0 -> 2 [labeldistance=2.5, labelangle=-45, headlabel="False"] ;
3 [label="petal width (cm) <= 1.65\ngini = 0.06\nsamples = 22\nvalue = [0, 33, 1]\nclass = versicolor", fillcolor="#3fe685"] ;
2 -> 3 ;
4 [label="gini = 0.0\nsamples = 20\nvalue = [0, 31, 0]\nclass = versicolor", fillcolor="#39e581"] ;
3 -> 4 ;
5 [label="petal width (cm) <= 1.75\ngini = 0.44\nsamples = 2\nvalue = [0, 2, 1]\nclass = versicolor", fillcolor="#9cf2c0"] ;
3 -> 5 ;
6 [label="gini = 0.0\nsamples = 1\nvalue = [0, 0, 1]\nclass = virginica", fillcolor="#8139e5"] ;
5 -> 6 ;
7 [label="gini = 0.0\nsamples = 1\nvalue = [0, 2, 0]\nclass = versicolor", fillcolor="#39e581"] ;
5 -> 7 ;
8 [label="petal length (cm) <= 4.95\ngini = 0.08\nsamples = 31\nvalue = [0, 2, 48]\nclass = virginica", fillcolor="#8641e6"] ;
2 -> 8 ;
9 [label="sepal width (cm) <= 2.6\ngini = 0.38\nsamples = 4\nvalue = [0, 2, 6]\nclass = virginica", fillcolor="#ab7bee"] ;
8 -> 9 ;
10 [label="gini = 0.0\nsamples = 1\nvalue = [0, 1, 0]\nclass = versicolor", fillcolor="#39e581"] ;
9 -> 10 ;
11 [label="sepal length (cm) <= 6.6\ngini = 0.24\nsamples = 3\nvalue = [0, 1, 6]\nclass = virginica", fillcolor="#965ae9"] ;
9 -> 11 ;
12 [label="gini = 0.0\nsamples = 2\nvalue = [0, 0, 6]\nclass = virginica", fillcolor="#8139e5"] ;
11 -> 12 ;
13 [label="gini = 0.0\nsamples = 1\nvalue = [0, 1, 0]\nclass = versicolor", fillcolor="#39e581"] ;
11 -> 13 ;
14 [label="gini = 0.0\nsamples = 27\nvalue = [0, 0, 42]\nclass = virginica", fillcolor="#8139e5"] ;
8 -> 14 ;
}